<?xml version="1.0"?>
<opencv_storage>
<stage11>
  <maxWeakCount>5</maxWeakCount>
  <stageThreshold>-9.8029351234436035e-01</stageThreshold>
  <weakClassifiers>
    <_>
      <internalNodes>
        0 -1 127868 2.9373964667320251e-01</internalNodes>
      <leafValues>
        -7.4404764175415039e-01 9.6551722288131714e-01</leafValues></_>
    <_>
      <internalNodes>
        0 -1 53272 2.3017827421426773e-02</internalNodes>
      <leafValues>
        -7.4063527584075928e-01 5.9851700067520142e-01</leafValues></_>
    <_>
      <internalNodes>
        0 -1 13706 -1.2065716087818146e-02</internalNodes>
      <leafValues>
        5.2331966161727905e-01 -8.2937651872634888e-01</leafValues></_>
    <_>
      <internalNodes>
        0 -1 248096 -2.4043396115303040e-03</internalNodes>
      <leafValues>
        5.5630850791931152e-01 -7.3666900396347046e-01</leafValues></_>
    <_>
      <internalNodes>
        0 -1 305984 3.0215713195502758e-03</internalNodes>
      <leafValues>
        -5.4797834157943726e-01 7.3128271102905273e-01</leafValues></_></weakClassifiers></stage11>
</opencv_storage>
