<?xml version="1.0"?>
<opencv_storage>
<cascade>
  <stageType>BOOST</stageType>
  <featureType>HAAR</featureType>
  <height>40</height>
  <width>21</width>
  <stageParams>
    <boostType>GAB</boostType>
    <minHitRate>9.9500000476837158e-01</minHitRate>
    <maxFalseAlarm>5.0000000000000000e-01</maxFalseAlarm>
    <weightTrimRate>9.4999998807907104e-01</weightTrimRate>
    <maxDepth>1</maxDepth>
    <maxWeakCount>100</maxWeakCount></stageParams>
  <featureParams>
    <maxCatCount>0</maxCatCount>
    <featSize>1</featSize>
    <mode>BASIC</mode></featureParams>
  <stageNum>13</stageNum>
  <stages>
    <!-- stage 0 -->
    <_>
      <maxWeakCount>1</maxWeakCount>
      <stageThreshold>1.</stageThreshold>
      <weakClassifiers>
        <_>
          <internalNodes>
            0 -1 12 1.8566136062145233e-01</internalNodes>
          <leafValues>
            -1. 1.</leafValues></_></weakClassifiers></_>
    <!-- stage 1 -->
    <_>
      <maxWeakCount>2</maxWeakCount>
      <stageThreshold>-2.9032698273658752e-01</stageThreshold>
      <weakClassifiers>
        <_>
          <internalNodes>
            0 -1 27 -2.3787616193294525e-01</internalNodes>
          <leafValues>
            8.6792451143264771e-01 -9.9305558204650879e-01</leafValues></_>
        <_>
          <internalNodes>
            0 -1 10 -1.8165765702724457e-01</internalNodes>
          <leafValues>
            7.0272856950759888e-01 -1.</leafValues></_></weakClassifiers></_>
    <!-- stage 2 -->
    <_>
      <maxWeakCount>2</maxWeakCount>
      <stageThreshold>-1.6699361801147461e-01</stageThreshold>
      <weakClassifiers>
        <_>
          <internalNodes>
            0 -1 0 9.0174257755279541e-02</internalNodes>
          <leafValues>
            -9.6539789438247681e-01 8.0952382087707520e-01</leafValues></_>
        <_>
          <internalNodes>
            0 -1 15 1.1452332884073257e-01</internalNodes>
          <leafValues>
            -9.3119043111801147e-01 7.9840427637100220e-01</leafValues></_></weakClassifiers></_>
    <!-- stage 3 -->
    <_>
      <maxWeakCount>2</maxWeakCount>
      <stageThreshold>-5.4798430204391479e-01</stageThreshold>
      <weakClassifiers>
        <_>
          <internalNodes>
            0 -1 3 4.6168923377990723e-01</internalNodes>
          <leafValues>
            -9.5539033412933350e-01 5.0400000810623169e-01</leafValues></_>
        <_>
          <internalNodes>
            0 -1 18 4.9887229688465595e-03</internalNodes>
          <leafValues>
            -9.8046857118606567e-01 4.0740600228309631e-01</leafValues></_></weakClassifiers></_>
    <!-- stage 4 -->
    <_>
      <maxWeakCount>2</maxWeakCount>
      <stageThreshold>-5.3020125627517700e-01</stageThreshold>
      <weakClassifiers>
        <_>
          <internalNodes>
            0 -1 21 -3.8928800821304321e-01</internalNodes>
          <leafValues>
            4.0495866537094116e-01 -8.9010989665985107e-01</leafValues></_>
        <_>
          <internalNodes>
            0 -1 14 -4.6000815927982330e-03</internalNodes>
          <leafValues>
            3.7592494487762451e-01 -9.3515992164611816e-01</leafValues></_></weakClassifiers></_>
    <!-- stage 5 -->
    <_>
      <maxWeakCount>3</maxWeakCount>
      <stageThreshold>-1.3795702457427979e+00</stageThreshold>
      <weakClassifiers>
        <_>
          <internalNodes>
            0 -1 4 5.0010251998901367e-01</internalNodes>
          <leafValues>
            -9.2592591047286987e-01 4.5161288976669312e-01</leafValues></_>
        <_>
          <internalNodes>
            0 -1 33 -3.3893163781613111e-03</internalNodes>
          <leafValues>
            4.2365837097167969e-01 -8.7765622138977051e-01</leafValues></_>
        <_>
          <internalNodes>
            0 -1 23 -3.2842063903808594e-01</internalNodes>
          <leafValues>
            4.2401185631752014e-01 -9.0136986970901489e-01</leafValues></_></weakClassifiers></_>
    <!-- stage 6 -->
    <_>
      <maxWeakCount>3</maxWeakCount>
      <stageThreshold>-1.2052377462387085e+00</stageThreshold>
      <weakClassifiers>
        <_>
          <internalNodes>
            0 -1 17 2.3301587998867035e-01</internalNodes>
          <leafValues>
            -7.9153096675872803e-01 5.6321841478347778e-01</leafValues></_>
        <_>
          <internalNodes>
            0 -1 6 -1.4349487610161304e-02</internalNodes>
          <leafValues>
            4.6108219027519226e-01 -8.6294025182723999e-01</leafValues></_>
        <_>
          <internalNodes>
            0 -1 29 2.7437463402748108e-02</internalNodes>
          <leafValues>
            -7.4169808626174927e-01 4.4923344254493713e-01</leafValues></_></weakClassifiers></_>
    <!-- stage 7 -->
    <_>
      <maxWeakCount>4</maxWeakCount>
      <stageThreshold>-7.7798378467559814e-01</stageThreshold>
      <weakClassifiers>
        <_>
          <internalNodes>
            0 -1 30 1.7712269909679890e-03</internalNodes>
          <leafValues>
            -8.6831277608871460e-01 1.1258278042078018e-01</leafValues></_>
        <_>
          <internalNodes>
            0 -1 1 3.2500628381967545e-02</internalNodes>
          <leafValues>
            -6.6956752538681030e-01 5.1360094547271729e-01</leafValues></_>
        <_>
          <internalNodes>
            0 -1 24 -1.0400886088609695e-01</internalNodes>
          <leafValues>
            4.3473437428474426e-01 -8.5816121101379395e-01</leafValues></_>
        <_>
          <internalNodes>
            0 -1 26 2.1820710971951485e-03</internalNodes>
          <leafValues>
            -8.2708013057708740e-01 4.3488925695419312e-01</leafValues></_></weakClassifiers></_>
    <!-- stage 8 -->
    <_>
      <maxWeakCount>3</maxWeakCount>
      <stageThreshold>-1.0564715862274170e+00</stageThreshold>
      <weakClassifiers>
        <_>
          <internalNodes>
            0 -1 13 4.4277000427246094e-01</internalNodes>
          <leafValues>
            -8.5084748268127441e-01 5.7575756311416626e-01</leafValues></_>
        <_>
          <internalNodes>
            0 -1 8 9.5572937279939651e-03</internalNodes>
          <leafValues>
            -8.4522312879562378e-01 4.5163872838020325e-01</leafValues></_>
        <_>
          <internalNodes>
            0 -1 28 8.4890052676200867e-03</internalNodes>
          <leafValues>
            -5.9932011365890503e-01 6.3959890604019165e-01</leafValues></_></weakClassifiers></_>
    <!-- stage 9 -->
    <_>
      <maxWeakCount>3</maxWeakCount>
      <stageThreshold>-1.2178354263305664e+00</stageThreshold>
      <weakClassifiers>
        <_>
          <internalNodes>
            0 -1 32 -1.0217877104878426e-02</internalNodes>
          <leafValues>
            7.7142858505249023e-01 -7.6543211936950684e-01</leafValues></_>
        <_>
          <internalNodes>
            0 -1 9 -4.4417701661586761e-02</internalNodes>
          <leafValues>
            4.8820129036903381e-01 -9.2461633682250977e-01</leafValues></_>
        <_>
          <internalNodes>
            0 -1 34 -2.7368003502488136e-03</internalNodes>
          <leafValues>
            4.7221297025680542e-01 -8.9139193296432495e-01</leafValues></_></weakClassifiers></_>
    <!-- stage 10 -->
    <_>
      <maxWeakCount>4</maxWeakCount>
      <stageThreshold>-8.4001129865646362e-01</stageThreshold>
      <weakClassifiers>
        <_>
          <internalNodes>
            0 -1 16 1.5750050544738770e-01</internalNodes>
          <leafValues>
            -8.9510488510131836e-01 5.7407408952713013e-01</leafValues></_>
        <_>
          <internalNodes>
            0 -1 2 3.2970033586025238e-02</internalNodes>
          <leafValues>
            -8.5405534505844116e-01 3.7078142166137695e-01</leafValues></_>
        <_>
          <internalNodes>
            0 -1 25 -2.0249947905540466e-02</internalNodes>
          <leafValues>
            3.8410118222236633e-01 -9.0967142581939697e-01</leafValues></_>
        <_>
          <internalNodes>
            0 -1 19 2.5200009346008301e-01</internalNodes>
          <leafValues>
            -6.9978898763656616e-01 6.0107296705245972e-01</leafValues></_></weakClassifiers></_>
    <!-- stage 11 -->
    <_>
      <maxWeakCount>5</maxWeakCount>
      <stageThreshold>-9.8029351234436035e-01</stageThreshold>
      <weakClassifiers>
        <_>
          <internalNodes>
            0 -1 22 2.9373964667320251e-01</internalNodes>
          <leafValues>
            -7.4404764175415039e-01 9.6551722288131714e-01</leafValues></_>
        <_>
          <internalNodes>
            0 -1 11 2.3017827421426773e-02</internalNodes>
          <leafValues>
            -7.4063527584075928e-01 5.9851700067520142e-01</leafValues></_>
        <_>
          <internalNodes>
            0 -1 5 -1.2065716087818146e-02</internalNodes>
          <leafValues>
            5.2331966161727905e-01 -8.2937651872634888e-01</leafValues></_>
        <_>
          <internalNodes>
            0 -1 31 -2.4043396115303040e-03</internalNodes>
          <leafValues>
            5.5630850791931152e-01 -7.3666900396347046e-01</leafValues></_>
        <_>
          <internalNodes>
            0 -1 36 3.0215713195502758e-03</internalNodes>
          <leafValues>
            -5.4797834157943726e-01 7.3128271102905273e-01</leafValues></_></weakClassifiers></_>
    <!-- stage 12 -->
    <_>
      <maxWeakCount>3</maxWeakCount>
      <stageThreshold>-6.7579329013824463e-01</stageThreshold>
      <weakClassifiers>
        <_>
          <internalNodes>
            0 -1 7 4.1431635618209839e-01</internalNodes>
          <leafValues>
            -8.4326016902923584e-01 1.</leafValues></_>
        <_>
          <internalNodes>
            0 -1 35 -7.4367583729326725e-03</internalNodes>
          <leafValues>
            1. -6.9490462541580200e-01</leafValues></_>
        <_>
          <internalNodes>
            0 -1 20 -1.6100435750558972e-03</internalNodes>
          <leafValues>
            -7.6680827140808105e-01 8.6237156391143799e-01</leafValues></_></weakClassifiers></_></stages>
  <features>
    <_>
      <rects>
        <_>
          0 0 21 18 -1.</_>
        <_>
          0 6 21 6 3.</_></rects>
      <tilted>0</tilted></_>
    <_>
      <rects>
        <_>
          0 1 12 12 -1.</_>
        <_>
          4 1 4 12 3.</_></rects>
      <tilted>0</tilted></_>
    <_>
      <rects>
        <_>
          0 1 12 7 -1.</_>
        <_>
          6 1 6 7 2.</_></rects>
      <tilted>0</tilted></_>
    <_>
      <rects>
        <_>
          0 2 21 31 -1.</_>
        <_>
          7 2 7 31 3.</_></rects>
      <tilted>0</tilted></_>
    <_>
      <rects>
        <_>
          0 4 21 32 -1.</_>
        <_>
          7 4 7 32 3.</_></rects>
      <tilted>0</tilted></_>
    <_>
      <rects>
        <_>
          0 9 15 8 -1.</_>
        <_>
          0 13 15 4 2.</_></rects>
      <tilted>0</tilted></_>
    <_>
      <rects>
        <_>
          0 10 10 8 -1.</_>
        <_>
          0 14 10 4 2.</_></rects>
      <tilted>0</tilted></_>
    <_>
      <rects>
        <_>
          1 3 18 32 -1.</_>
        <_>
          7 3 6 32 3.</_></rects>
      <tilted>0</tilted></_>
    <_>
      <rects>
        <_>
          1 3 20 4 -1.</_>
        <_>
          1 5 20 2 2.</_></rects>
      <tilted>0</tilted></_>
    <_>
      <rects>
        <_>
          1 9 9 14 -1.</_>
        <_>
          1 16 9 7 2.</_></rects>
      <tilted>0</tilted></_>
    <_>
      <rects>
        <_>
          1 11 15 22 -1.</_>
        <_>
          1 22 15 11 2.</_></rects>
      <tilted>0</tilted></_>
    <_>
      <rects>
        <_>
          1 18 12 2 -1.</_>
        <_>
          7 18 6 2 2.</_></rects>
      <tilted>0</tilted></_>
    <_>
      <rects>
        <_>
          2 0 18 30 -1.</_>
        <_>
          8 0 6 30 3.</_></rects>
      <tilted>0</tilted></_>
    <_>
      <rects>
        <_>
          2 1 18 37 -1.</_>
        <_>
          8 1 6 37 3.</_></rects>
      <tilted>0</tilted></_>
    <_>
      <rects>
        <_>
          2 9 7 24 -1.</_>
        <_>
          2 17 7 8 3.</_></rects>
      <tilted>0</tilted></_>
    <_>
      <rects>
        <_>
          2 13 10 26 -1.</_>
        <_>
          7 13 5 26 2.</_></rects>
      <tilted>0</tilted></_>
    <_>
      <rects>
        <_>
          2 18 18 11 -1.</_>
        <_>
          8 18 6 11 3.</_></rects>
      <tilted>0</tilted></_>
    <_>
      <rects>
        <_>
          2 18 18 18 -1.</_>
        <_>
          8 18 6 18 3.</_></rects>
      <tilted>0</tilted></_>
    <_>
      <rects>
        <_>
          2 31 18 2 -1.</_>
        <_>
          8 31 6 2 3.</_></rects>
      <tilted>0</tilted></_>
    <_>
      <rects>
        <_>
          3 3 15 33 -1.</_>
        <_>
          8 3 5 33 3.</_></rects>
      <tilted>0</tilted></_>
    <_>
      <rects>
        <_>
          3 29 14 2 -1.</_>
        <_>
          3 30 14 1 2.</_></rects>
      <tilted>0</tilted></_>
    <_>
      <rects>
        <_>
          4 4 11 36 -1.</_>
        <_>
          4 22 11 18 2.</_></rects>
      <tilted>0</tilted></_>
    <_>
      <rects>
        <_>
          4 8 15 26 -1.</_>
        <_>
          9 8 5 26 3.</_></rects>
      <tilted>0</tilted></_>
    <_>
      <rects>
        <_>
          5 8 11 32 -1.</_>
        <_>
          5 24 11 16 2.</_></rects>
      <tilted>0</tilted></_>
    <_>
      <rects>
        <_>
          5 15 11 16 -1.</_>
        <_>
          5 23 11 8 2.</_></rects>
      <tilted>0</tilted></_>
    <_>
      <rects>
        <_>
          5 26 10 14 -1.</_>
        <_>
          5 33 10 7 2.</_></rects>
      <tilted>0</tilted></_>
    <_>
      <rects>
        <_>
          5 31 10 4 -1.</_>
        <_>
          10 31 5 4 2.</_></rects>
      <tilted>0</tilted></_>
    <_>
      <rects>
        <_>
          6 9 9 30 -1.</_>
        <_>
          6 24 9 15 2.</_></rects>
      <tilted>0</tilted></_>
    <_>
      <rects>
        <_>
          8 21 9 2 -1.</_>
        <_>
          11 21 3 2 3.</_></rects>
      <tilted>0</tilted></_>
    <_>
      <rects>
        <_>
          9 24 12 16 -1.</_>
        <_>
          9 24 6 8 2.</_>
        <_>
          15 32 6 8 2.</_></rects>
      <tilted>0</tilted></_>
    <_>
      <rects>
        <_>
          9 28 7 12 -1.</_>
        <_>
          9 32 7 4 3.</_></rects>
      <tilted>0</tilted></_>
    <_>
      <rects>
        <_>
          9 30 10 2 -1.</_>
        <_>
          14 30 5 2 2.</_></rects>
      <tilted>0</tilted></_>
    <_>
      <rects>
        <_>
          10 0 10 6 -1.</_>
        <_>
          10 0 5 3 2.</_>
        <_>
          15 3 5 3 2.</_></rects>
      <tilted>0</tilted></_>
    <_>
      <rects>
        <_>
          10 29 10 2 -1.</_>
        <_>
          15 29 5 2 2.</_></rects>
      <tilted>0</tilted></_>
    <_>
      <rects>
        <_>
          10 32 3 8 -1.</_>
        <_>
          10 36 3 4 2.</_></rects>
      <tilted>0</tilted></_>
    <_>
      <rects>
        <_>
          13 1 8 8 -1.</_>
        <_>
          13 1 4 4 2.</_>
        <_>
          17 5 4 4 2.</_></rects>
      <tilted>0</tilted></_>
    <_>
      <rects>
        <_>
          14 1 6 18 -1.</_>
        <_>
          14 1 3 9 2.</_>
        <_>
          17 10 3 9 2.</_></rects>
      <tilted>0</tilted></_></features></cascade>
</opencv_storage>
