<?xml version="1.0"?>
<opencv_storage>
<stage2>
  <maxWeakCount>5</maxWeakCount>
  <stageThreshold>-1.2991344928741455e+00</stageThreshold>
  <weakClassifiers>
    <_>
      <internalNodes>
        0 -1 409140 2.9813723638653755e-02</internalNodes>
      <leafValues>
        -8.3442264795303345e-01 4.9019607901573181e-01</leafValues></_>
    <_>
      <internalNodes>
        0 -1 157457 2.2106645628809929e-02</internalNodes>
      <leafValues>
        1.5290819108486176e-01 -8.7904441356658936e-01</leafValues></_>
    <_>
      <internalNodes>
        0 -1 109261 8.8556744158267975e-03</internalNodes>
      <leafValues>
        -6.2189477682113647e-01 4.1883566975593567e-01</leafValues></_>
    <_>
      <internalNodes>
        0 -1 409066 5.6905699893832207e-03</internalNodes>
      <leafValues>
        -5.1544463634490967e-01 5.3941327333450317e-01</leafValues></_>
    <_>
      <internalNodes>
        0 -1 104671 6.4687561243772507e-03</internalNodes>
      <leafValues>
        -5.2101099491119385e-01 5.7058203220367432e-01</leafValues></_></weakClassifiers></stage2>
</opencv_storage>
