<?xml version="1.0"?>
<opencv_storage>
<stage2>
  <maxWeakCount>5</maxWeakCount>
  <stageThreshold>-1.5608994662761688e-01</stageThreshold>
  <weakClassifiers>
    <_>
      <internalNodes>
        0 -1 37361 -4.1386652737855911e-03</internalNodes>
      <leafValues>
        6.6834169626235962e-01 -4.2553192377090454e-01</leafValues></_>
    <_>
      <internalNodes>
        0 -1 28164 1.4550868421792984e-02</internalNodes>
      <leafValues>
        -3.2522270083427429e-01 8.8328647613525391e-01</leafValues></_>
    <_>
      <internalNodes>
        0 -1 21613 -6.7420527338981628e-02</internalNodes>
      <leafValues>
        9.8367643356323242e-01 -2.9873806238174438e-01</leafValues></_>
    <_>
      <internalNodes>
        0 -1 3294 -7.1052392013370991e-04</internalNodes>
      <leafValues>
        -8.7268489599227905e-01 4.3576821684837341e-01</leafValues></_>
    <_>
      <internalNodes>
        0 -1 22667 2.0702271722257137e-03</internalNodes>
      <leafValues>
        -5.3629517555236816e-01 6.0902291536331177e-01</leafValues></_></weakClassifiers></stage2>
</opencv_storage>
