<?xml version="1.0"?>
<opencv_storage>
<stage13>
  <maxWeakCount>6</maxWeakCount>
  <stageThreshold>-1.2762846946716309e+00</stageThreshold>
  <weakClassifiers>
    <_>
      <internalNodes>
        0 -1 2354 1.0652897506952286e-01</internalNodes>
      <leafValues>
        -2.6562500000000000e-01 7.6969695091247559e-01</leafValues></_>
    <_>
      <internalNodes>
        0 -1 35130 -8.6734886281192303e-05</internalNodes>
      <leafValues>
        6.3871359825134277e-01 -3.0983182787895203e-01</leafValues></_>
    <_>
      <internalNodes>
        0 -1 19435 -3.0884901061654091e-03</internalNodes>
      <leafValues>
        4.5333772897720337e-01 -5.8095812797546387e-01</leafValues></_>
    <_>
      <internalNodes>
        0 -1 518 -2.5240647792816162e-01</internalNodes>
      <leafValues>
        7.8915399312973022e-01 -3.5485488176345825e-01</leafValues></_>
    <_>
      <internalNodes>
        0 -1 690 8.4756880998611450e-02</internalNodes>
      <leafValues>
        -4.4451564550399780e-01 7.0868051052093506e-01</leafValues></_>
    <_>
      <internalNodes>
        0 -1 37184 5.9126882115378976e-04</internalNodes>
      <leafValues>
        -3.5582113265991211e-01 6.3072293996810913e-01</leafValues></_></weakClassifiers></stage13>
</opencv_storage>
