<?xml version="1.0"?>
<opencv_storage>
<stage7>
  <maxWeakCount>6</maxWeakCount>
  <stageThreshold>-4.0447095036506653e-01</stageThreshold>
  <weakClassifiers>
    <_>
      <internalNodes>
        0 -1 27565 -8.9490029495209455e-04</internalNodes>
      <leafValues>
        -6.6666668653488159e-01 5.3974896669387817e-01</leafValues></_>
    <_>
      <internalNodes>
        0 -1 39736 2.9589618861791678e-05</internalNodes>
      <leafValues>
        -4.8463898897171021e-01 5.3472882509231567e-01</leafValues></_>
    <_>
      <internalNodes>
        0 -1 14373 -8.9412238448858261e-03</internalNodes>
      <leafValues>
        6.7825925350189209e-01 -4.2219942808151245e-01</leafValues></_>
    <_>
      <internalNodes>
        0 -1 25046 -1.7914742231369019e-02</internalNodes>
      <leafValues>
        8.1747794151306152e-01 -4.2218264937400818e-01</leafValues></_>
    <_>
      <internalNodes>
        0 -1 21857 -2.7307918295264244e-02</internalNodes>
      <leafValues>
        9.4118314981460571e-01 -3.0326715111732483e-01</leafValues></_>
    <_>
      <internalNodes>
        0 -1 29429 -2.9330293182283640e-04</internalNodes>
      <leafValues>
        6.8806833028793335e-01 -3.5064038634300232e-01</leafValues></_></weakClassifiers></stage7>
</opencv_storage>
