<?xml version="1.0"?>
<opencv_storage>
<stage15>
  <maxWeakCount>5</maxWeakCount>
  <stageThreshold>-5.3594356775283813e-01</stageThreshold>
  <weakClassifiers>
    <_>
      <internalNodes>
        0 -1 278 1.7816135287284851e-01</internalNodes>
      <leafValues>
        -2.3943662643432617e-01 8.4105962514877319e-01</leafValues></_>
    <_>
      <internalNodes>
        0 -1 28681 2.0738935563713312e-03</internalNodes>
      <leafValues>
        3.9023324847221375e-01 -9.2011135816574097e-01</leafValues></_>
    <_>
      <internalNodes>
        0 -1 13 2.9209475032985210e-03</internalNodes>
      <leafValues>
        3.6196148395538330e-01 -7.4269104003906250e-01</leafValues></_>
    <_>
      <internalNodes>
        0 -1 22663 3.6920434795320034e-03</internalNodes>
      <leafValues>
        -6.1342650651931763e-01 4.2300742864608765e-01</leafValues></_>
    <_>
      <internalNodes>
        0 -1 26792 1.8383650109171867e-02</internalNodes>
      <leafValues>
        -3.6705660820007324e-01 7.5822913646697998e-01</leafValues></_></weakClassifiers></stage15>
</opencv_storage>
