<?xml version="1.0"?>
<opencv_storage>
<stage14>
  <maxWeakCount>7</maxWeakCount>
  <stageThreshold>-4.3927448987960815e-01</stageThreshold>
  <weakClassifiers>
    <_>
      <internalNodes>
        0 -1 25061 -4.3835476040840149e-02</internalNodes>
      <leafValues>
        -8.0487805604934692e-01 5.0000000000000000e-01</leafValues></_>
    <_>
      <internalNodes>
        0 -1 1568 2.6832709088921547e-02</internalNodes>
      <leafValues>
        -3.3487692475318909e-01 8.4602779150009155e-01</leafValues></_>
    <_>
      <internalNodes>
        0 -1 15192 5.7283299975097179e-04</internalNodes>
      <leafValues>
        3.4159898757934570e-01 -7.7024781703948975e-01</leafValues></_>
    <_>
      <internalNodes>
        0 -1 28199 4.1766010224819183e-02</internalNodes>
      <leafValues>
        -2.7186480164527893e-01 9.7405296564102173e-01</leafValues></_>
    <_>
      <internalNodes>
        0 -1 28312 2.4360708892345428e-02</internalNodes>
      <leafValues>
        -2.6712086796760559e-01 9.6094191074371338e-01</leafValues></_>
    <_>
      <internalNodes>
        0 -1 572 2.3974226787686348e-03</internalNodes>
      <leafValues>
        3.6827203631401062e-01 -9.0459036827087402e-01</leafValues></_>
    <_>
      <internalNodes>
        0 -1 35848 -3.0124848708510399e-03</internalNodes>
      <leafValues>
        5.2959513664245605e-01 -5.3109431266784668e-01</leafValues></_></weakClassifiers></stage14>
</opencv_storage>
