<?xml version="1.0"?>
<opencv_storage>
<stage7>
  <maxWeakCount>5</maxWeakCount>
  <stageThreshold>-1.9383636116981506e-01</stageThreshold>
  <weakClassifiers>
    <_>
      <internalNodes>
        0 -1 129789 -1.3365203631110489e-04</internalNodes>
      <leafValues>
        6.3535910844802856e-01 -5.2272725105285645e-01</leafValues></_>
    <_>
      <internalNodes>
        0 -1 275 2.5432612746953964e-02</internalNodes>
      <leafValues>
        -3.6089134216308594e-01 8.9998704195022583e-01</leafValues></_>
    <_>
      <internalNodes>
        0 -1 123522 -3.5254522226750851e-03</internalNodes>
      <leafValues>
        -7.6581996679306030e-01 4.5025983452796936e-01</leafValues></_>
    <_>
      <internalNodes>
        0 -1 87746 -3.0508186668157578e-02</internalNodes>
      <leafValues>
        9.2731088399887085e-01 -3.9297640323638916e-01</leafValues></_>
    <_>
      <internalNodes>
        0 -1 68034 4.6481214463710785e-02</internalNodes>
      <leafValues>
        -5.2558755874633789e-01 1.</leafValues></_></weakClassifiers></stage7>
</opencv_storage>
