<?xml version="1.0"?>
<opencv_storage>
<stage19>
  <maxWeakCount>5</maxWeakCount>
  <stageThreshold>-3.3964550495147705e-01</stageThreshold>
  <weakClassifiers>
    <_>
      <internalNodes>
        0 -1 162121 6.0781918000429869e-04</internalNodes>
      <leafValues>
        5.1131224632263184e-01 -9.1666668653488159e-01</leafValues></_>
    <_>
      <internalNodes>
        0 -1 87290 1.7249007942155004e-03</internalNodes>
      <leafValues>
        -3.9684960246086121e-01 7.6592415571212769e-01</leafValues></_>
    <_>
      <internalNodes>
        0 -1 80737 -5.9687125030905008e-04</internalNodes>
      <leafValues>
        -6.7485147714614868e-01 5.0350773334503174e-01</leafValues></_>
    <_>
      <internalNodes>
        0 -1 157102 -1.5422477736137807e-04</internalNodes>
      <leafValues>
        8.4003192186355591e-01 -4.1362032294273376e-01</leafValues></_>
    <_>
      <internalNodes>
        0 -1 143547 2.6531256735324860e-03</internalNodes>
      <leafValues>
        -4.1219192743301392e-01 8.8398337364196777e-01</leafValues></_></weakClassifiers></stage19>
</opencv_storage>
