<?xml version="1.0"?>
<opencv_storage>
<cascade>
  <stageType>BOOST</stageType>
  <featureType>HAAR</featureType>
  <height>24</height>
  <width>24</width>
  <stageParams>
    <boostType>GAB</boostType>
    <minHitRate>9.9500000476837158e-01</minHitRate>
    <maxFalseAlarm>5.0000000000000000e-01</maxFalseAlarm>
    <weightTrimRate>9.4999998807907104e-01</weightTrimRate>
    <maxDepth>1</maxDepth>
    <maxWeakCount>100</maxWeakCount></stageParams>
  <featureParams>
    <maxCatCount>0</maxCatCount>
    <featSize>1</featSize>
    <mode>BASIC</mode></featureParams>
  <stageNum>9</stageNum>
  <stages>
    <!-- stage 0 -->
    <_>
      <maxWeakCount>2</maxWeakCount>
      <stageThreshold>6.0607377439737320e-02</stageThreshold>
      <weakClassifiers>
        <_>
          <internalNodes>
            0 -1 0 3.7826851010322571e-02</internalNodes>
          <leafValues>
            -9.3548387289047241e-01 1.</leafValues></_>
        <_>
          <internalNodes>
            0 -1 8 4.6950131654739380e-03</internalNodes>
          <leafValues>
            -9.3939262628555298e-01 1.</leafValues></_></weakClassifiers></_>
    <!-- stage 1 -->
    <_>
      <maxWeakCount>1</maxWeakCount>
      <stageThreshold>1.</stageThreshold>
      <weakClassifiers>
        <_>
          <internalNodes>
            0 -1 3 1.3582294806838036e-02</internalNodes>
          <leafValues>
            -1. 1.</leafValues></_></weakClassifiers></_>
    <!-- stage 2 -->
    <_>
      <maxWeakCount>1</maxWeakCount>
      <stageThreshold>1.</stageThreshold>
      <weakClassifiers>
        <_>
          <internalNodes>
            0 -1 7 -8.2536995410919189e-02</internalNodes>
          <leafValues>
            1. -1.</leafValues></_></weakClassifiers></_>
    <!-- stage 3 -->
    <_>
      <maxWeakCount>2</maxWeakCount>
      <stageThreshold>-3.0822942033410072e-02</stageThreshold>
      <weakClassifiers>
        <_>
          <internalNodes>
            0 -1 2 3.0053811147809029e-02</internalNodes>
          <leafValues>
            -9.3548387289047241e-01 1.</leafValues></_>
        <_>
          <internalNodes>
            0 -1 14 3.5024054348468781e-02</internalNodes>
          <leafValues>
            -1. 9.0466094017028809e-01</leafValues></_></weakClassifiers></_>
    <!-- stage 4 -->
    <_>
      <maxWeakCount>2</maxWeakCount>
      <stageThreshold>3.1693339347839355e-02</stageThreshold>
      <weakClassifiers>
        <_>
          <internalNodes>
            0 -1 6 -7.6054602861404419e-02</internalNodes>
          <leafValues>
            1. -9.3548387289047241e-01</leafValues></_>
        <_>
          <internalNodes>
            0 -1 13 -3.2655354589223862e-02</internalNodes>
          <leafValues>
            9.6717721223831177e-01 -1.</leafValues></_></weakClassifiers></_>
    <!-- stage 5 -->
    <_>
      <maxWeakCount>2</maxWeakCount>
      <stageThreshold>3.1693339347839355e-02</stageThreshold>
      <weakClassifiers>
        <_>
          <internalNodes>
            0 -1 1 -1.4010185003280640e-01</internalNodes>
          <leafValues>
            1. -9.3548387289047241e-01</leafValues></_>
        <_>
          <internalNodes>
            0 -1 10 -5.2207889966666698e-03</internalNodes>
          <leafValues>
            9.6717721223831177e-01 -1.</leafValues></_></weakClassifiers></_>
    <!-- stage 6 -->
    <_>
      <maxWeakCount>2</maxWeakCount>
      <stageThreshold>-8.9488118886947632e-02</stageThreshold>
      <weakClassifiers>
        <_>
          <internalNodes>
            0 -1 4 -1.0038429498672485e-01</internalNodes>
          <leafValues>
            1. -9.3548387289047241e-01</leafValues></_>
        <_>
          <internalNodes>
            0 -1 12 2.1139727905392647e-03</internalNodes>
          <leafValues>
            -1. 8.4599578380584717e-01</leafValues></_></weakClassifiers></_>
    <!-- stage 7 -->
    <_>
      <maxWeakCount>2</maxWeakCount>
      <stageThreshold>-4.2322487570345402e-03</stageThreshold>
      <weakClassifiers>
        <_>
          <internalNodes>
            0 -1 5 1.7687597870826721e-01</internalNodes>
          <leafValues>
            -9.3548387289047241e-01 1.</leafValues></_>
        <_>
          <internalNodes>
            0 -1 9 6.8915724754333496e-02</internalNodes>
          <leafValues>
            -7.6377487182617188e-01 9.3125164508819580e-01</leafValues></_></weakClassifiers></_>
    <!-- stage 8 -->
    <_>
      <maxWeakCount>2</maxWeakCount>
      <stageThreshold>-1.0622061090543866e-03</stageThreshold>
      <weakClassifiers>
        <_>
          <internalNodes>
            0 -1 11 3.8274493068456650e-02</internalNodes>
          <leafValues>
            -9.3548387289047241e-01 1.</leafValues></_>
        <_>
          <internalNodes>
            0 -1 15 1.6603136435151100e-02</internalNodes>
          <leafValues>
            -9.3520379066467285e-01 9.3442165851593018e-01</leafValues></_></weakClassifiers></_></stages>
  <features>
    <_>
      <rects>
        <_>
          0 0 9 8 -1.</_>
        <_>
          0 4 9 4 2.</_></rects>
      <tilted>0</tilted></_>
    <_>
      <rects>
        <_>
          0 2 19 14 -1.</_>
        <_>
          0 9 19 7 2.</_></rects>
      <tilted>0</tilted></_>
    <_>
      <rects>
        <_>
          0 4 12 3 -1.</_>
        <_>
          6 4 6 3 2.</_></rects>
      <tilted>0</tilted></_>
    <_>
      <rects>
        <_>
          1 16 20 1 -1.</_>
        <_>
          11 16 10 1 2.</_></rects>
      <tilted>0</tilted></_>
    <_>
      <rects>
        <_>
          2 4 16 8 -1.</_>
        <_>
          2 8 16 4 2.</_></rects>
      <tilted>0</tilted></_>
    <_>
      <rects>
        <_>
          3 0 13 12 -1.</_>
        <_>
          3 4 13 4 3.</_></rects>
      <tilted>0</tilted></_>
    <_>
      <rects>
        <_>
          3 5 14 6 -1.</_>
        <_>
          3 8 14 3 2.</_></rects>
      <tilted>0</tilted></_>
    <_>
      <rects>
        <_>
          3 9 18 11 -1.</_>
        <_>
          9 9 6 11 3.</_></rects>
      <tilted>0</tilted></_>
    <_>
      <rects>
        <_>
          5 0 1 8 -1.</_>
        <_>
          5 4 1 4 2.</_></rects>
      <tilted>0</tilted></_>
    <_>
      <rects>
        <_>
          7 2 13 6 -1.</_>
        <_>
          7 5 13 3 2.</_></rects>
      <tilted>0</tilted></_>
    <_>
      <rects>
        <_>
          9 0 4 16 -1.</_>
        <_>
          11 0 2 16 2.</_></rects>
      <tilted>0</tilted></_>
    <_>
      <rects>
        <_>
          9 1 3 9 -1.</_>
        <_>
          9 4 3 3 3.</_></rects>
      <tilted>0</tilted></_>
    <_>
      <rects>
        <_>
          11 21 10 2 -1.</_>
        <_>
          16 21 5 2 2.</_></rects>
      <tilted>0</tilted></_>
    <_>
      <rects>
        <_>
          13 18 11 6 -1.</_>
        <_>
          13 21 11 3 2.</_></rects>
      <tilted>0</tilted></_>
    <_>
      <rects>
        <_>
          17 0 6 8 -1.</_>
        <_>
          17 4 6 4 2.</_></rects>
      <tilted>0</tilted></_>
    <_>
      <rects>
        <_>
          18 0 6 20 -1.</_>
        <_>
          18 0 3 10 2.</_>
        <_>
          21 10 3 10 2.</_></rects>
      <tilted>0</tilted></_></features></cascade>
</opencv_storage>
