<?xml version="1.0"?>
<opencv_storage>
<stage5>
  <maxWeakCount>7</maxWeakCount>
  <stageThreshold>-9.0182983875274658e-01</stageThreshold>
  <weakClassifiers>
    <_>
      <internalNodes>
        0 -1 61147 6.0305539518594742e-02</internalNodes>
      <leafValues>
        -5.9493672847747803e-01 5.2380955219268799e-01</leafValues></_>
    <_>
      <internalNodes>
        0 -1 122562 1.2086397036910057e-02</internalNodes>
      <leafValues>
        -2.7654778957366943e-01 6.7621833086013794e-01</leafValues></_>
    <_>
      <internalNodes>
        0 -1 139202 -3.5687920171767473e-04</internalNodes>
      <leafValues>
        -7.3755908012390137e-01 2.1731908619403839e-01</leafValues></_>
    <_>
      <internalNodes>
        0 -1 11586 -2.1823804825544357e-02</internalNodes>
      <leafValues>
        5.1471066474914551e-01 -2.8150847554206848e-01</leafValues></_>
    <_>
      <internalNodes>
        0 -1 42811 -1.0729253292083740e-01</internalNodes>
      <leafValues>
        -1. 2.0664390921592712e-01</leafValues></_>
    <_>
      <internalNodes>
        0 -1 141183 2.3594491183757782e-02</internalNodes>
      <leafValues>
        -2.6234322786331177e-01 6.3195294141769409e-01</leafValues></_>
    <_>
      <internalNodes>
        0 -1 37898 -8.8550860527902842e-04</internalNodes>
      <leafValues>
        -9.7108060121536255e-01 1.5012532472610474e-01</leafValues></_></weakClassifiers></stage5>
</opencv_storage>
