<?xml version="1.0"?>
<opencv_storage>
<stage17>
  <maxWeakCount>10</maxWeakCount>
  <stageThreshold>-1.1865721940994263e+00</stageThreshold>
  <weakClassifiers>
    <_>
      <internalNodes>
        0 -1 160655 -9.0853665024042130e-03</internalNodes>
      <leafValues>
        3.3333334326744080e-01 -5.7468354701995850e-01</leafValues></_>
    <_>
      <internalNodes>
        0 -1 10056 -5.4643424227833748e-03</internalNodes>
      <leafValues>
        -6.5857744216918945e-01 6.7866511642932892e-02</leafValues></_>
    <_>
      <internalNodes>
        0 -1 62069 1.3667511940002441e-01</internalNodes>
      <leafValues>
        8.8798470795154572e-02 -8.5017526149749756e-01</leafValues></_>
    <_>
      <internalNodes>
        0 -1 71418 -2.6745566725730896e-01</internalNodes>
      <leafValues>
        -7.8734725713729858e-01 1.4606232941150665e-01</leafValues></_>
    <_>
      <internalNodes>
        0 -1 9760 -2.2379087284207344e-02</internalNodes>
      <leafValues>
        2.3295612633228302e-01 -4.1569107770919800e-01</leafValues></_>
    <_>
      <internalNodes>
        0 -1 162330 -2.7779489755630493e-04</internalNodes>
      <leafValues>
        -5.9617596864700317e-01 1.7470033466815948e-01</leafValues></_>
    <_>
      <internalNodes>
        0 -1 67407 -7.9875662922859192e-03</internalNodes>
      <leafValues>
        -4.0903946757316589e-01 2.3108270764350891e-01</leafValues></_>
    <_>
      <internalNodes>
        0 -1 105195 1.9593076780438423e-02</internalNodes>
      <leafValues>
        9.2839084565639496e-02 -9.4686311483383179e-01</leafValues></_>
    <_>
      <internalNodes>
        0 -1 20264 -8.0238198279403150e-05</internalNodes>
      <leafValues>
        3.7433868646621704e-01 -2.9904946684837341e-01</leafValues></_>
    <_>
      <internalNodes>
        0 -1 159743 3.3792196772992611e-03</internalNodes>
      <leafValues>
        1.5017551183700562e-01 -6.3027936220169067e-01</leafValues></_></weakClassifiers></stage17>
</opencv_storage>
