<?xml version="1.0"?>
<opencv_storage>
<stage6>
  <maxWeakCount>7</maxWeakCount>
  <stageThreshold>-8.9735156297683716e-01</stageThreshold>
  <weakClassifiers>
    <_>
      <internalNodes>
        0 -1 54849 -2.2605864703655243e-01</internalNodes>
      <leafValues>
        8.6956517770886421e-03 -6.6459625959396362e-01</leafValues></_>
    <_>
      <internalNodes>
        0 -1 159529 1.0614049620926380e-02</internalNodes>
      <leafValues>
        -2.5825926661491394e-01 5.9102773666381836e-01</leafValues></_>
    <_>
      <internalNodes>
        0 -1 49414 2.3701665922999382e-03</internalNodes>
      <leafValues>
        1.5108655393123627e-01 -9.1714304685592651e-01</leafValues></_>
    <_>
      <internalNodes>
        0 -1 140429 -1.9361148588359356e-03</internalNodes>
      <leafValues>
        6.0419899225234985e-01 -2.1017032861709595e-01</leafValues></_>
    <_>
      <internalNodes>
        0 -1 93116 -3.6169745726510882e-04</internalNodes>
      <leafValues>
        3.1713402271270752e-01 -3.7249535322189331e-01</leafValues></_>
    <_>
      <internalNodes>
        0 -1 161167 3.4274416975677013e-04</internalNodes>
      <leafValues>
        2.0490181446075439e-01 -5.8942604064941406e-01</leafValues></_>
    <_>
      <internalNodes>
        0 -1 71550 7.7647004218306392e-05</internalNodes>
      <leafValues>
        -3.1641221046447754e-01 3.7885186076164246e-01</leafValues></_></weakClassifiers></stage6>
</opencv_storage>
