<?xml version="1.0"?>
<opencv_storage>
<stage9>
  <maxWeakCount>11</maxWeakCount>
  <stageThreshold>-1.0905869007110596e+00</stageThreshold>
  <weakClassifiers>
    <_>
      <internalNodes>
        0 -1 91156 2.0838487893342972e-02</internalNodes>
      <leafValues>
        -5.7320100069046021e-01 5.2941179275512695e-01</leafValues></_>
    <_>
      <internalNodes>
        0 -1 25717 3.6556972190737724e-04</internalNodes>
      <leafValues>
        1.0487499088048935e-01 -7.9486215114593506e-01</leafValues></_>
    <_>
      <internalNodes>
        0 -1 94644 -1.1268197558820248e-02</internalNodes>
      <leafValues>
        5.9982055425643921e-01 -2.2470851242542267e-01</leafValues></_>
    <_>
      <internalNodes>
        0 -1 161169 -5.0618679961189628e-04</internalNodes>
      <leafValues>
        -7.0186126232147217e-01 1.9540673494338989e-01</leafValues></_>
    <_>
      <internalNodes>
        0 -1 8496 -1.0773669183254242e-01</internalNodes>
      <leafValues>
        8.5235351324081421e-01 -1.6449156403541565e-01</leafValues></_>
    <_>
      <internalNodes>
        0 -1 160387 -3.3162757754325867e-03</internalNodes>
      <leafValues>
        6.2804335355758667e-01 -2.1419392526149750e-01</leafValues></_>
    <_>
      <internalNodes>
        0 -1 77289 2.7942024171352386e-02</internalNodes>
      <leafValues>
        -2.0740734040737152e-01 6.1564308404922485e-01</leafValues></_>
    <_>
      <internalNodes>
        0 -1 152075 3.6832883954048157e-02</internalNodes>
      <leafValues>
        -2.1674662828445435e-01 6.9108623266220093e-01</leafValues></_>
    <_>
      <internalNodes>
        0 -1 49399 -2.9006987460888922e-04</internalNodes>
      <leafValues>
        -6.9882112741470337e-01 2.3776350915431976e-01</leafValues></_>
    <_>
      <internalNodes>
        0 -1 33270 -1.1214576661586761e-02</internalNodes>
      <leafValues>
        7.0044505596160889e-01 -2.4281269311904907e-01</leafValues></_>
    <_>
      <internalNodes>
        0 -1 120747 1.6657895685057156e-05</internalNodes>
      <leafValues>
        -3.4909117221832275e-01 4.0120264887809753e-01</leafValues></_></weakClassifiers></stage9>
</opencv_storage>
