<?xml version="1.0"?>
<opencv_storage>
<stage8>
  <maxWeakCount>7</maxWeakCount>
  <stageThreshold>-1.3728193044662476e+00</stageThreshold>
  <weakClassifiers>
    <_>
      <internalNodes>
        0 -1 158345 2.6885323226451874e-02</internalNodes>
      <leafValues>
        -6.1052632331848145e-01 3.3333334326744080e-01</leafValues></_>
    <_>
      <internalNodes>
        0 -1 25720 2.8492318233475089e-04</internalNodes>
      <leafValues>
        1.2967106699943542e-01 -8.8193631172180176e-01</leafValues></_>
    <_>
      <internalNodes>
        0 -1 25716 -2.3119268007576466e-04</internalNodes>
      <leafValues>
        -6.6037344932556152e-01 1.4287804067134857e-01</leafValues></_>
    <_>
      <internalNodes>
        0 -1 6309 -1.6737505793571472e-01</internalNodes>
      <leafValues>
        4.8606303334236145e-01 -2.4442239105701447e-01</leafValues></_>
    <_>
      <internalNodes>
        0 -1 98277 -5.8430002536624670e-04</internalNodes>
      <leafValues>
        -6.7052459716796875e-01 2.0982195436954498e-01</leafValues></_>
    <_>
      <internalNodes>
        0 -1 29681 2.0404133945703506e-02</internalNodes>
      <leafValues>
        1.8308813869953156e-01 -7.9451590776443481e-01</leafValues></_>
    <_>
      <internalNodes>
        0 -1 48131 1.4593545347452164e-02</internalNodes>
      <leafValues>
        -2.3021717369556427e-01 6.2733721733093262e-01</leafValues></_></weakClassifiers></stage8>
</opencv_storage>
