<?xml version="1.0"?>
<opencv_storage>
<stage16>
  <maxWeakCount>10</maxWeakCount>
  <stageThreshold>-1.0731627941131592e+00</stageThreshold>
  <weakClassifiers>
    <_>
      <internalNodes>
        0 -1 47420 1.9166741520166397e-02</internalNodes>
      <leafValues>
        -5.5717760324478149e-01 6.1538463830947876e-01</leafValues></_>
    <_>
      <internalNodes>
        0 -1 12817 -7.7366188634186983e-04</internalNodes>
      <leafValues>
        -7.3345875740051270e-01 8.7797656655311584e-02</leafValues></_>
    <_>
      <internalNodes>
        0 -1 72002 2.8814243152737617e-02</internalNodes>
      <leafValues>
        1.2290458381175995e-01 -8.8841778039932251e-01</leafValues></_>
    <_>
      <internalNodes>
        0 -1 152259 9.8023973405361176e-03</internalNodes>
      <leafValues>
        -2.4387212097644806e-01 5.0460523366928101e-01</leafValues></_>
    <_>
      <internalNodes>
        0 -1 71833 1.5155867673456669e-02</internalNodes>
      <leafValues>
        -2.4119012057781219e-01 3.7471869587898254e-01</leafValues></_>
    <_>
      <internalNodes>
        0 -1 70592 -2.2730797063559294e-03</internalNodes>
      <leafValues>
        5.6256490945816040e-01 -1.9438992440700531e-01</leafValues></_>
    <_>
      <internalNodes>
        0 -1 103317 -1.3317234814167023e-02</internalNodes>
      <leafValues>
        -6.9356995820999146e-01 1.8080386519432068e-01</leafValues></_>
    <_>
      <internalNodes>
        0 -1 102097 -4.5074610970914364e-03</internalNodes>
      <leafValues>
        3.8134518265724182e-01 -2.6324945688247681e-01</leafValues></_>
    <_>
      <internalNodes>
        0 -1 134214 -2.5815216358751059e-03</internalNodes>
      <leafValues>
        5.8612895011901855e-01 -1.6521793603897095e-01</leafValues></_>
    <_>
      <internalNodes>
        0 -1 106571 3.0046270694583654e-05</internalNodes>
      <leafValues>
        -2.9245367646217346e-01 3.5406798124313354e-01</leafValues></_></weakClassifiers></stage16>
</opencv_storage>
